{"learner":{"attributes":{"scikit_learn":"{\"_estimator_type\": \"regressor\"}"},"feature_names":[],"feature_types":[],"gradient_booster":{"model":{"gbtree_model_param":{"num_parallel_tree":"1","num_trees":"25"},"iteration_indptr":[0,1,2,3,4,5,6,7,8,9,10,11,12,13,14,15,16,17,18,19,20,21,22,23,24,25],"tree_info":[0,0,0,0,0,0,0,0,0,0,0,0,0,0,0,0,0,0,0,0,0,0,0,0,0],"trees":[{"base_weights":[1.8780049E-5,-5.7924043E3,1.5446411E3,4.100967E1,6.7494604E2,-2.2136275E2,5.534317E2,4.7893703E1,2.1312401E2],"categories":[],"categories_nodes":[],"categories_segments":[],"categories_sizes":[],"default_left":[0,0,0,0,0,0,0,0,0],"id":0,"left_children":[1,-1,3,5,-1,-1,7,-1,-1],"loss_changes":[8.052467E8,0E0,2.6415968E7,4.0004262E6,0E0,0E0,2.5748862E5,0E0,0E0],"parents":[2147483647,0,0,2,2,3,3,6,6],"right_children":[2,-1,4,6,-1,-1,8,-1,-1],"split_conditions":[-1.4693416E0,-5.7924043E3,-4.439382E2,-1.358276E0,6.7494604E2,-2.2136275E2,1.1E2,4.7893703E1,2.1312401E2],"split_indices":[0,0,1,0,0,0,4,0,0],"split_type":[0,0,0,0,0,0,0,0,0],"sum_hessian":[2.5E1,1E0,2.4E1,8E0,1.6E1,3E0,5E0,2E0,3E0],"tree_param":{"num_deleted":"0","num_feature":"16","num_nodes":"9","size_leaf_vector":"1"}},{"base_weights":[-1.9530022E2,-4.923544E3,1.1098328E3,3.311286E1,1.6145767E3,-5.718537E2,4.309051E2,5.0033963E2,1.1445354E2,-2.0167606E2,-4.0598145E1,1.5131364E2,9.530494E0],"categories":[],"categories_nodes":[],"categories_segments":[],"categories_sizes":[],"default_left":[0,0,0,0,0,0,0,0,0,0,0,0,0],"id":1,"left_children":[1,-1,3,5,7,9,11,-1,-1,-1,-1,-1,-1],"loss_changes":[5.684967E8,0E0,1.3533234E7,2.4122735E6,4.79364E5,8.4334625E4,1.5993312E5,0E0,0E0,0E0,0E0,0E0,0E0],"parents":[2147483647,0,0,2,2,3,3,4,4,5,5,6,6],"right_children":[2,-1,4,6,8,10,12,-1,-1,-1,-1,-1,-1],"split_conditions":[-1.4693416E0,-4.923544E3,-4.439382E2,-1.358276E0,2.622E3,-7.5526984E2,3.29E3,5.0033963E2,1.1445354E2,-2.0167606E2,-4.0598145E1,1.5131364E2,9.530494E0],"split_indices":[0,0,1,0,2,1,2,0,0,0,0,0,0],"split_type":[0,0,0,0,0,0,0,0,0,0,0,0,0],"sum_hessian":[2.5E1,1E0,2.4E1,8E0,1.6E1,3E0,5E0,1.5E1,1E0,2E0,1E0,4E0,1E0],"tree_param":{"num_deleted":"0","num_feature":"16","num_nodes":"13","size_leaf_vector":"1"}},{"base_weights":[-3.055633E2,-4.1850127E3,7.9821747E2,1.0354712E3,-3.578917E2,5.23202E2,3.762703E2,-2.0265865E2,-1.0960022E2,2.5244862E1,1.7217073E2,-4.9240704E1,8.100916E0],"categories":[],"categories_nodes":[],"categories_segments":[],"categories_sizes":[],"default_left":[0,0,0,0,0,0,0,0,0,0,0,0,0],"id":2,"left_children":[1,-1,3,5,7,9,-1,-1,11,-1,-1,-1,-1],"loss_changes":[4.0270848E8,0E0,7.227866E6,1.69716E6,3.2029475E5,1.297875E5,0E0,0E0,3.4231043E4,0E0,0E0,0E0,0E0],"parents":[2147483647,0,0,2,2,3,3,4,4,5,5,8,8],"right_children":[2,-1,4,6,8,10,-1,-1,12,-1,-1,-1,-1],"split_conditions":[-1.4693416E0,-4.1850127E3,2.67E3,-3.113705E2,-1.4456375E0,5.941E3,3.762703E2,-2.0265865E2,-1.358276E0,2.5244862E1,1.7217073E2,-4.9240704E1,8.100916E0],"split_indices":[0,0,8,1,0,9,0,0,0,0,0,0,0],"split_type":[0,0,0,0,0,0,0,0,0,0,0,0,0],"sum_hessian":[2.5E1,1E0,2.4E1,2E1,4E0,7E0,1.3E1,1E0,3E0,1E0,6E0,2E0,1E0],"tree_param":{"num_deleted":"0","num_feature":"16","num_nodes":"13","size_leaf_vector":"1"}},{"base_weights":[-3.6216827E2,-3.5572605E3,5.7194775E2,7.521482E2,-2.9928384E2,3.9091837E2,2.7145212E2,-1.7225984E2,-8.7005066E1,4.0189323E1,1.3627269E2,-3.9392555E1,6.8857913E0],"categories":[],"categories_nodes":[],"categories_segments":[],"categories_sizes":[],"default_left":[0,0,0,0,0,0,0,0,0,0,0,0,0],"id":3,"left_children":[1,-1,3,5,7,9,-1,-1,11,-1,-1,-1,-1],"loss_changes":[2.8597005E8,0E0,4.150015E6,8.04577E5,2.4183547E5,6.9318375E4,0E0,0E0,2.24999E4,0E0,0E0,0E0,0E0],"parents":[2147483647,0,0,2,2,3,3,4,4,5,5,8,8],"right_children":[2,-1,4,6,8,10,-1,-1,12,-1,-1,-1,-1],"split_conditions":[-1.4693416E0,-3.5572605E3,2.67E3,-3.113705E2,-1.4456375E0,-1.3045362E0,2.7145212E2,-1.7225984E2,-1.358276E0,4.0189323E1,1.3627269E2,-3.9392555E1,6.8857913E0],"split_indices":[0,0,8,1,0,0,0,0,0,0,0,0,0],"split_type":[0,0,0,0,0,0,0,0,0,0,0,0,0],"sum_hessian":[2.5E1,1E0,2.4E1,2E1,4E0,7E0,1.3E1,1E0,3E0,2E0,5E0,2E0,1E0],"tree_param":{"num_deleted":"0","num_feature":"16","num_nodes":"13","size_leaf_vector":"1"}},{"base_weights":[-3.809837E2,-3.0236714E3,4.100893E2,5.47833E2,-2.50452E2,2.1350572E2,3.3417725E2,-1.4642088E2,-6.903021E1,1.54297495E1,1.0719254E2,-3.1514038E1,5.85293E0],"categories":[],"categories_nodes":[],"categories_segments":[],"categories_sizes":[],"default_left":[0,0,0,0,0,0,0,0,0,0,0,0,0],"id":4,"left_children":[1,-1,3,5,7,-1,9,-1,11,-1,-1,-1,-1],"loss_changes":[2.035991E8,0E0,2.4118405E6,4.973405E5,1.818535E5,0E0,5.3565375E4,0E0,1.4805068E4,0E0,0E0,0E0,0E0],"parents":[2147483647,0,0,2,2,3,3,4,4,6,6,8,8],"right_children":[2,-1,4,6,8,-1,10,-1,12,-1,-1,-1,-1],"split_conditions":[-1.4693416E0,-3.0236714E3,2.67E3,4.24E2,-1.4456375E0,2.1350572E2,4.46E2,-1.4642088E2,-1.358276E0,1.54297495E1,1.0719254E2,-3.1514038E1,5.85293E0],"split_indices":[0,0,8,8,0,0,13,0,0,0,0,0,0],"split_type":[0,0,0,0,0,0,0,0,0,0,0,0,0],"sum_hessian":[2.5E1,1E0,2.4E1,2E1,4E0,1E1,1E1,1E0,3E0,1E0,9E0,2E0,1E0],"tree_param":{"num_deleted":"0","num_feature":"16","num_nodes":"13","size_leaf_vector":"1"}},{"base_weights":[-3.7667416E2,-2.5701206E3,2.9362436E2,3.994892E2,-2.0973282E2,2.4046068E2,1.5666016E2,-1.2445774E2,-5.473645E1,3.350667E1,8.243669E1,-2.5211233E1,4.9749756E0],"categories":[],"categories_nodes":[],"categories_segments":[],"categories_sizes":[],"default_left":[0,0,0,0,0,0,0,0,0,0,0,0,0],"id":5,"left_children":[1,-1,3,5,7,9,-1,-1,11,-1,-1,-1,-1],"loss_changes":[1.4525573E8,0E0,1.4159812E6,2.8423825E5,1.3626122E5,1.793475E4,0E0,0E0,9.7525625E3,0E0,0E0,0E0,0E0],"parents":[2147483647,0,0,2,2,3,3,4,4,5,5,8,8],"right_children":[2,-1,4,6,8,10,-1,-1,12,-1,-1,-1,-1],"split_conditions":[-1.4693416E0,-2.5701206E3,2.67E3,-1.0530033E0,-1.4456375E0,-1.3045362E0,1.5666016E2,-1.2445774E2,-1.358276E0,3.350667E1,8.243669E1,-2.5211233E1,4.9749756E0],"split_indices":[0,0,8,0,0,0,0,0,0,0,0,0,0],"split_type":[0,0,0,0,0,0,0,0,0,0,0,0,0],"sum_hessian":[2.5E1,1E0,2.4E1,2E1,4E0,1E1,1E1,1E0,3E0,3E0,7E0,2E0,1E0],"tree_param":{"num_deleted":"0","num_feature":"16","num_nodes":"13","size_leaf_vector":"1"}},{"base_weights":[-3.576031E2,-2.1846025E3,2.1065343E2,2.9262357E2,-1.757518E2,1.1753638E2,1.856013E2,-1.0578908E2,-4.3374634E1,1.6164478E1,2.0655708E2,-2.0168995E1,4.228711E0,6.8892105E1,2.2844799E1],"categories":[],"categories_nodes":[],"categories_segments":[],"categories_sizes":[],"default_left":[0,0,0,0,0,0,0,0,0,0,0,0,0,0,0],"id":6,"left_children":[1,-1,3,5,7,-1,9,-1,11,-1,13,-1,-1,-1,-1],"loss_changes":[1.0383976E8,0E0,8.4327125E5,1.5015238E5,1.0177814E5,0E0,2.1993844E4,0E0,6.4315527E3,0E0,1.26154375E4,0E0,0E0,0E0,0E0],"parents":[2147483647,0,0,2,2,3,3,4,4,6,6,8,8,10,10],"right_children":[2,-1,4,6,8,-1,10,-1,12,-1,14,-1,-1,-1,-1],"split_conditions":[-1.4693416E0,-2.1846025E3,2.67E3,4.111E3,-1.4456375E0,1.1753638E2,4.71E2,-1.0578908E2,-1.358276E0,1.6164478E1,2.329E3,-2.0168995E1,4.228711E0,6.8892105E1,2.2844799E1],"split_indices":[0,0,8,9,0,0,13,0,0,0,8,0,0,0,0],"split_type":[0,0,0,0,0,0,0,0,0,0,0,0,0,0,0],"sum_hessian":[2.5E1,1E0,2.4E1,2E1,4E0,9E0,1.1E1,1E0,3E0,2E0,9E0,2E0,1E0,7E0,2E0],"tree_param":{"num_deleted":"0","num_feature":"16","num_nodes":"15","size_leaf_vector":"1"}},{"base_weights":[-3.3035657E2,-1.8569122E3,1.5160573E2,2.1557161E2,-1.4737216E2,1.2977046E2,8.45326E1,-8.9920715E1,-3.434735E1,6.579973E1,4.7077568E1,-1.6135206E1,3.594397E0,5.664624E0,2.1842588E1],"categories":[],"categories_nodes":[],"categories_segments":[],"categories_sizes":[],"default_left":[0,0,0,0,0,0,0,0,0,0,0,0,0,0,0],"id":7,"left_children":[1,-1,3,5,7,9,-1,-1,11,13,-1,-1,-1,-1,-1],"loss_changes":[7.436203E7,0E0,5.0987888E5,8.2721375E4,7.5809195E4,8.7825625E3,0E0,0E0,4.2463037E3,2.6942578E2,0E0,0E0,0E0,0E0,0E0],"parents":[2147483647,0,0,2,2,3,3,4,4,5,5,8,8,9,9],"right_children":[2,-1,4,6,8,10,-1,-1,12,14,-1,-1,-1,-1,-1],"split_conditions":[-1.4693416E0,-1.8569122E3,2.67E3,-1.0530033E0,-1.4456375E0,-4.439382E2,8.45326E1,-8.9920715E1,-1.358276E0,1.1E2,4.7077568E1,-1.6135206E1,3.594397E0,5.664624E0,2.1842588E1],"split_indices":[0,0,8,0,0,1,0,0,0,4,0,0,0,0,0],"split_type":[0,0,0,0,0,0,0,0,0,0,0,0,0,0,0],"sum_hessian":[2.5E1,1E0,2.4E1,2E1,4E0,1E1,1E1,1E0,3E0,4E0,6E0,2E0,1E0,1E0,3E0],"tree_param":{"num_deleted":"0","num_feature":"16","num_nodes":"15","size_leaf_vector":"1"}},{"base_weights":[-3.004902E2,-1.5783754E3,1.0839025E2,1.5847716E2,-1.2365283E2,1.0344631E2,2.203576E2,-7.643262E1,-2.7178345E1,4.619068E1,6.3884155E1,6.950305E1,1.947056E1,-1.29081545E1,3.0552247E0,4.8149414E0,2.0357168E1],"categories":[],"categories_nodes":[],"categories_segments":[],"categories_sizes":[],"default_left":[0,0,0,0,0,0,0,0,0,0,0,0,0,0,0,0,0],"id":8,"left_children":[1,-1,3,5,7,9,11,-1,13,-1,15,-1,-1,-1,-1,-1,-1],"loss_changes":[5.3307584E7,0E0,3.1015422E5,4.8716812E4,5.6325547E4,1.6148016E4,8.005E2,0E0,2.8067966E3,0E0,6.2134375E2,0E0,0E0,0E0,0E0,0E0,0E0],"parents":[2147483647,0,0,2,2,3,3,4,4,5,5,6,6,8,8,10,10],"right_children":[2,-1,4,6,8,10,12,-1,14,-1,16,-1,-1,-1,-1,-1,-1],"split_conditions":[-1.4693416E0,-1.5783754E3,2.67E3,-8.310207E-1,-1.4456375E0,1.463E3,6.695E3,-7.643262E1,-1.358276E0,4.619068E1,1.1E2,6.950305E1,1.947056E1,-1.29081545E1,3.0552247E0,4.8149414E0,2.0357168E1],"split_indices":[0,0,8,0,0,2,5,0,0,0,4,0,0,0,0,0,0],"split_type":[0,0,0,0,0,0,0,0,0,0,0,0,0,0,0,0,0],"sum_hessian":[2.5E1,1E0,2.4E1,2E1,4E0,1.2E1,8E0,1E0,3E0,4E0,8E0,7E0,1E0,2E0,1E0,1E0,7E0],"tree_param":{"num_deleted":"0","num_feature":"16","num_nodes":"17","size_leaf_vector":"1"}},{"base_weights":[-2.6820178E2,-1.3416191E3,7.883521E1,1.1856908E2,-1.03814064E2,7.790186E1,4.9240887E1,-6.496773E1,-2.1488037E1,3.510492E1,4.75158E1,-1.0326513E1,2.5969484E0,5.673624E0,1.5895971E1],"categories":[],"categories_nodes":[],"categories_segments":[],"categories_sizes":[],"default_left":[0,0,0,0,0,0,0,0,0,0,0,0,0,0,0],"id":9,"left_children":[1,-1,3,5,7,9,-1,-1,11,-1,13,-1,-1,-1,-1],"loss_changes":[3.8283844E7,0E0,1.937432E5,2.6128375E4,4.1755816E4,9.890844E3,0E0,0E0,1.8574896E3,0E0,4.0627344E2,0E0,0E0,0E0,0E0],"parents":[2147483647,0,0,2,2,3,3,4,4,5,5,8,8,10,10],"right_children":[2,-1,4,6,8,10,-1,-1,12,-1,14,-1,-1,-1,-1],"split_conditions":[-1.4693416E0,-1.3416191E3,2.67E3,-8.310207E-1,-1.4456375E0,1.463E3,4.9240887E1,-6.496773E1,-1.358276E0,3.510492E1,1.4961E4,-1.0326513E1,2.5969484E0,5.673624E0,1.5895971E1],"split_indices":[0,0,8,0,0,2,0,0,0,0,11,0,0,0,0],"split_type":[0,0,0,0,0,0,0,0,0,0,0,0,0,0,0],"sum_hessian":[2.5E1,1E0,2.4E1,2E1,4E0,1.2E1,8E0,1E0,3E0,4E0,8E0,2E0,1E0,2E0,6E0],"tree_param":{"num_deleted":"0","num_feature":"16","num_nodes":"15","size_leaf_vector":"1"}},{"base_weights":[-2.3806438E2,-1.1403762E3,5.6513363E1,8.804194E1,-8.720933E1,1.1879569E2,5.5076977E1,-5.522256E1,-1.697406E1,3.7860992E1,7.81908E0,2.3527914E1,3.359898E1,-8.261231E0,2.2074099E0,4.07364E1,1.6277458E1,3.2416627E0,1.365532E1,-4.4849855E-1,6.809983E0],"categories":[],"categories_nodes":[],"categories_segments":[],"categories_sizes":[],"default_left":[0,0,0,0,0,0,0,0,0,0,0,0,0,0,0,0,0,0,0,0,0],"id":10,"left_children":[1,-1,3,5,7,9,11,-1,13,-1,-1,-1,15,-1,-1,17,19,-1,-1,-1,-1],"loss_changes":[2.7505366E7,0E0,1.20962375E5,1.47468125E4,3.0892492E4,3.5799219E3,3.3829336E3,0E0,1.2307373E3,0E0,0E0,0E0,3.259619E2,0E0,0E0,2.2370312E2,4.9050928E2,0E0,0E0,0E0,0E0],"parents":[2147483647,0,0,2,2,3,3,4,4,5,5,6,6,8,8,12,12,15,15,16,16],"right_children":[2,-1,4,6,8,10,12,-1,14,-1,-1,-1,16,-1,-1,18,20,-1,-1,-1,-1],"split_conditions":[-1.4693416E0,-1.1403762E3,2.67E3,4.111E3,-1.4456375E0,6.695E3,1.463E3,-5.522256E1,-1.358276E0,3.7860992E1,7.81908E0,2.3527914E1,1.418E3,-8.261231E0,2.2074099E0,1.1E2,-1.323182E0,3.2416627E0,1.365532E1,-4.4849855E-1,6.809983E0],"split_indices":[0,0,8,9,0,5,2,0,0,0,0,0,5,0,0,4,0,0,0,0,0],"split_type":[0,0,0,0,0,0,0,0,0,0,0,0,0,0,0,0,0,0,0,0,0],"sum_hessian":[2.5E1,1E0,2.4E1,2E1,4E0,9E0,1.1E1,1E0,3E0,8E0,1E0,4E0,7E0,2E0,1E0,4E0,3E0,1E0,3E0,1E0,2E0],"tree_param":{"num_deleted":"0","num_feature":"16","num_nodes":"21","size_leaf_vector":"1"}},{"base_weights":[-2.093061E2,-9.6931995E2,4.080696E1,-4.6939163E1,5.5545906E1,6.8591766E0,7.51899E1,-1.7157837E1,2.4700953E1,9.1243225E1,3.9221832E1,-6.6089845E0,-3.8122562E-1,3.8008943E0,1.0923926E1,7.271732E0,2.865592E1,2.545189E0,1.2879246E1],"categories":[],"categories_nodes":[],"categories_segments":[],"categories_sizes":[],"default_left":[0,0,0,0,0,0,0,0,0,0,0,0,0,0,0,0,0,0,0],"id":11,"left_children":[1,-1,3,-1,5,7,9,11,13,15,17,-1,-1,-1,-1,-1,-1,-1,-1],"loss_changes":[1.9782174E7,0E0,8.1380016E4,0E0,2.2437906E4,3.851864E3,6.2371953E3,2.8162012E2,2.4322046E2,8.3665625E2,4.338203E2,0E0,0E0,0E0,0E0,0E0,0E0,0E0,0E0],"parents":[2147483647,0,0,2,2,4,4,5,5,6,6,7,7,8,8,9,9,10,10],"right_children":[2,-1,4,-1,6,8,10,12,14,16,18,-1,-1,-1,-1,-1,-1,-1,-1],"split_conditions":[-1.4693416E0,-9.6931995E2,-1.4456375E0,-4.6939163E1,-4.439382E2,-1.323182E0,1.35E2,-1.358276E0,-1.1133238E0,-1.4416295E0,2.105E3,-6.6089845E0,-3.8122562E-1,3.8008943E0,1.0923926E1,7.271732E0,2.865592E1,2.545189E0,1.2879246E1],"split_indices":[0,0,0,0,1,0,4,0,0,0,6,0,0,0,0,0,0,0,0],"split_type":[0,0,0,0,0,0,0,0,0,0,0,0,0,0,0,0,0,0,0],"sum_hessian":[2.5E1,1E0,2.4E1,1E0,2.3E1,7E0,1.6E1,3E0,4E0,1E1,6E0,2E0,1E0,3E0,1E0,1E0,9E0,1E0,5E0],"tree_param":{"num_deleted":"0","num_feature":"16","num_nodes":"19","size_leaf_vector":"1"}},{"base_weights":[-1.833286E2,-8.2392194E2,2.9050762E1,-3.9898315E1,4.1344074E1,5.3365776E1,-3.6153157E0,6.666766E1,3.4727303E1,-1.7624023E1,7.795044E0,2.1174927E1,4.714332E0,3.374334E0,4.3183132E1,-1.5433228E0,-6.387488E0,-3.2404175E-1,3.3340454E0,1.3879839E1,3.7027726E0],"categories":[],"categories_nodes":[],"categories_segments":[],"categories_sizes":[],"default_left":[0,0,0,0,0,0,0,0,0,0,0,0,0,0,0,0,0,0,0,0,0],"id":12,"left_children":[1,-1,3,-1,5,7,9,11,13,15,17,-1,-1,-1,19,-1,-1,-1,-1,-1,-1],"loss_changes":[1.423275E7,0E0,5.530032E4,0E0,1.3164652E4,2.3954219E3,1.0964463E3,8.858594E2,1.4996729E3,2.7777954E1,1.2981122E2,0E0,0E0,0E0,9.452734E1,0E0,0E0,0E0,0E0,0E0,0E0],"parents":[2147483647,0,0,2,2,4,4,5,5,6,6,7,7,8,8,9,9,10,10,14,14],"right_children":[2,-1,4,-1,6,8,10,12,14,16,18,-1,-1,-1,20,-1,-1,-1,-1,-1,-1],"split_conditions":[-1.4693416E0,-8.2392194E2,-1.4456375E0,-3.9898315E1,2.329E3,4.111E3,-1.358276E0,6.695E3,1.612E4,-1.4344693E0,-1.323182E0,2.1174927E1,4.714332E0,3.374334E0,-1.0229738E0,-1.5433228E0,-6.387488E0,-3.2404175E-1,3.3340454E0,1.3879839E1,3.7027726E0],"split_indices":[0,0,0,0,8,9,0,5,11,0,0,0,0,0,0,0,0,0,0,0,0],"split_type":[0,0,0,0,0,0,0,0,0,0,0,0,0,0,0,0,0,0,0,0,0],"sum_hessian":[2.5E1,1E0,2.4E1,1E0,2.3E1,1.8E1,5E0,9E0,9E0,2E0,3E0,8E0,1E0,3E0,6E0,1E0,1E0,1E0,2E0,5E0,1E0],"tree_param":{"num_deleted":"0","num_feature":"16","num_nodes":"21","size_leaf_vector":"1"}},{"base_weights":[-1.5994135E2,-7.003336E2,2.0416622E1,-3.391355E1,3.0687746E1,3.9821632E1,-3.3508503E0,3.1688404E1,1.8719742E1,-1.4980469E1,6.209076E0,3.7680515E1,2.0986229E1,-1.3118409E0,-5.4293704E0,-2.7542725E-1,8.890828E0,1.1930334E1,3.1473565E0,2.4036007E1,2.36738E0,8.0606693E-1,3.194806E0,1.6791505E0,7.9813023E0],"categories":[],"categories_nodes":[],"categories_segments":[],"categories_sizes":[],"default_left":[0,0,0,0,0,0,0,0,0,0,0,0,0,0,0,0,0,0,0,0,0,0,0,0,0],"id":13,"left_children":[1,-1,3,-1,5,7,9,11,-1,13,15,17,19,-1,-1,-1,21,-1,-1,23,-1,-1,-1,-1,-1],"loss_changes":[1.0244579E7,0E0,3.7739164E4,0E0,7.5951504E3,1.5116035E3,7.6008466E2,2.3528613E2,0E0,2.0067444E1,8.461577E1,9.355078E1,1.2981934E2,0E0,0E0,0E0,4.1157074E0,0E0,0E0,1.352334E2,0E0,0E0,0E0,0E0,0E0],"parents":[2147483647,0,0,2,2,4,4,5,5,6,6,7,7,9,9,10,10,11,11,12,12,16,16,19,19],"right_children":[2,-1,4,-1,6,8,10,12,-1,14,16,18,20,-1,-1,-1,22,-1,-1,24,-1,-1,-1,-1,-1],"split_conditions":[-1.4693416E0,-7.003336E2,-1.4456375E0,-3.391355E1,2.329E3,-2.013158E-1,-1.358276E0,1.463E3,1.8719742E1,-1.4344693E0,-1.323182E0,6.908E3,5.04E2,-1.3118409E0,-5.4293704E0,-2.7542725E-1,-1.1133238E0,1.1930334E1,3.1473565E0,7.36E2,2.36738E0,8.0606693E-1,3.194806E0,1.6791505E0,7.9813023E0],"split_indices":[0,0,0,0,8,0,0,2,0,0,0,5,8,0,0,0,0,0,0,3,0,0,0,0,0],"split_type":[0,0,0,0,0,0,0,0,0,0,0,0,0,0,0,0,0,0,0,0,0,0,0,0,0],"sum_hessian":[2.5E1,1E0,2.4E1,1E0,2.3E1,1.8E1,5E0,1.5E1,3E0,2E0,3E0,8E0,7E0,1E0,1E0,1E0,2E0,7E0,1E0,5E0,2E0,1E0,1E0,1E0,4E0],"tree_param":{"num_deleted":"0","num_feature":"16","num_nodes":"25","size_leaf_vector":"1"}},{"base_weights":[-1.3855276E2,-5.952838E2,1.4647463E1,-2.8826515E1,2.3265139E1,3.028699E1,-2.8482463E0,2.3875967E1,1.45078E1,-1.2733398E1,5.2776794E0,2.7030464E1,4.234019E0,-1.1150757E0,-4.614954E0,-2.3411866E-1,7.5571694E0,2.8860476E0,8.949155E0,6.8514407E-1,2.7155824E0],"categories":[],"categories_nodes":[],"categories_segments":[],"categories_sizes":[],"default_left":[0,0,0,0,0,0,0,0,0,0,0,0,0,0,0,0,0,0,0,0,0],"id":14,"left_children":[1,-1,3,-1,5,7,9,11,-1,13,15,17,-1,-1,-1,-1,19,-1,-1,-1,-1],"loss_changes":[7.3809735E6,0E0,2.6092648E4,0E0,4.4870107E3,1.0467539E3,5.491589E2,1.1124414E2,0E0,1.449704E1,6.1134872E1,2.4927295E2,0E0,0E0,0E0,0E0,2.9744415E0,0E0,0E0,0E0,0E0],"parents":[2147483647,0,0,2,2,4,4,5,5,6,6,7,7,9,9,10,10,11,11,16,16],"right_children":[2,-1,4,-1,6,8,10,12,-1,14,16,18,-1,-1,-1,-1,20,-1,-1,-1,-1],"split_conditions":[-1.4693416E0,-5.952838E2,-1.4456375E0,-2.8826515E1,2.329E3,-2.013158E-1,-1.358276E0,7.69E2,1.45078E1,-1.4344693E0,-1.323182E0,-1.3045362E0,4.234019E0,-1.1150757E0,-4.614954E0,-2.3411866E-1,-1.1133238E0,2.8860476E0,8.949155E0,6.8514407E-1,2.7155824E0],"split_indices":[0,0,0,0,8,0,0,7,0,0,0,0,0,0,0,0,0,0,0,0,0],"split_type":[0,0,0,0,0,0,0,0,0,0,0,0,0,0,0,0,0,0,0,0,0],"sum_hessian":[2.5E1,1E0,2.4E1,1E0,2.3E1,1.8E1,5E0,1.5E1,3E0,2E0,3E0,1E1,5E0,1E0,1E0,1E0,2E0,2E0,8E0,1E0,1E0],"tree_param":{"num_deleted":"0","num_feature":"16","num_nodes":"21","size_leaf_vector":"1"}},{"base_weights":[-1.19913666E2,-5.0599103E2,1.0220721E1,-2.4502516E1,1.7452839E1,2.2810217E1,-2.4210002E0,1.0270703E1,1.6284292E1,-1.0823405E1,4.4860535E0,6.899365E0,9.999199E0,-9.4782716E-1,-3.9227052E0,-1.9899903E-1,6.4236245E0,1.2033843E1,5.75589E-1,5.823853E-1,2.308246E0,9.943726E-1,3.8803875E0],"categories":[],"categories_nodes":[],"categories_segments":[],"categories_sizes":[],"default_left":[0,0,0,0,0,0,0,0,0,0,0,0,0,0,0,0,0,0,0,0,0,0,0],"id":15,"left_children":[1,-1,3,-1,5,7,9,-1,11,13,15,-1,17,-1,-1,-1,19,21,-1,-1,-1,-1,-1],"loss_changes":[5.318237E6,0E0,1.8040486E4,0E0,2.6105435E3,8.5916797E2,3.967695E2,0E0,3.6077686E2,1.0472656E1,4.4170166E1,0E0,1.2488129E2,0E0,0E0,0E0,2.1482925E0,1.2106262E1,0E0,0E0,0E0,0E0,0E0],"parents":[2147483647,0,0,2,2,4,4,5,5,6,6,8,8,9,9,10,10,12,12,16,16,17,17],"right_children":[2,-1,4,-1,6,8,10,-1,12,14,16,-1,18,-1,-1,-1,20,22,-1,-1,-1,-1,-1],"split_conditions":[-1.4693416E0,-5.0599103E2,-1.4456375E0,-2.4502516E1,2.329E3,1.064E3,-1.358276E0,1.0270703E1,8E1,-1.4344693E0,-1.323182E0,6.899365E0,5.04E2,-9.4782716E-1,-3.9227052E0,-1.9899903E-1,-1.1133238E0,-9.257646E2,5.75589E-1,5.823853E-1,2.308246E0,9.943726E-1,3.8803875E0],"split_indices":[0,0,0,0,8,5,0,0,4,0,0,0,8,0,0,0,0,1,0,0,0,0,0],"split_type":[0,0,0,0,0,0,0,0,0,0,0,0,0,0,0,0,0,0,0,0,0,0,0],"sum_hessian":[2.5E1,1E0,2.4E1,1E0,2.3E1,1.8E1,5E0,5E0,1.3E1,2E0,3E0,5E0,8E0,1E0,1E0,1E0,2E0,6E0,2E0,1E0,1E0,1E0,5E0],"tree_param":{"num_deleted":"0","num_feature":"16","num_nodes":"23","size_leaf_vector":"1"}},{"base_weights":[-1.03556915E2,-4.300922E2,6.992061E0,-2.0827148E1,1.3068716E1,2.2024536E-1,1.8346308E1,-9.199951E0,4.893636E0,1.3529576E1,9.185487E0,-8.056641E-1,-3.334314E0,2.6455934E0,7.2647095E-1,4.947743E0,8.21061E0,-1.6915284E-1,1.3445231E0,5.807236E-1,2.680139E0,1.0999146E-1,4.9504396E-1],"categories":[],"categories_nodes":[],"categories_segments":[],"categories_sizes":[],"default_left":[0,0,0,0,0,0,0,0,0,0,0,0,0,0,0,0,0,0,0,0,0,0,0],"id":16,"left_children":[1,-1,3,-1,5,7,9,11,13,15,-1,-1,-1,-1,17,-1,19,-1,21,-1,-1,-1,-1],"loss_changes":[3.8330485E6,0E0,1.2516105E4,0E0,1.623375E3,3.9721527E2,5.9063135E2,7.565918E0,9.173045E1,8.52207E1,0E0,0E0,0E0,0E0,3.9480247E0,0E0,1.4471741E1,0E0,2.915864E-1,0E0,0E0,0E0,0E0],"parents":[2147483647,0,0,2,2,4,4,5,5,6,6,7,7,8,8,9,9,14,14,16,16,18,18],"right_children":[2,-1,4,-1,6,8,10,12,14,16,-1,-1,-1,-1,18,-1,20,-1,22,-1,-1,-1,-1],"split_conditions":[-1.4693416E0,-4.300922E2,-1.4456375E0,-2.0827148E1,-4.439382E2,-1.358276E0,-2.013158E-1,-1.4344693E0,1.093E3,7.69E2,9.185487E0,-8.056641E-1,-3.334314E0,2.6455934E0,-1.323182E0,4.947743E0,7.72E2,-1.6915284E-1,-1.2597226E0,5.807236E-1,2.680139E0,1.0999146E-1,4.9504396E-1],"split_indices":[0,0,0,0,1,0,0,0,5,7,0,0,0,0,0,0,7,0,0,0,0,0,0],"split_type":[0,0,0,0,0,0,0,0,0,0,0,0,0,0,0,0,0,0,0,0,0,0,0],"sum_hessian":[2.5E1,1E0,2.4E1,1E0,2.3E1,7E0,1.6E1,2E0,5E0,1.3E1,3E0,1E0,1E0,2E0,3E0,7E0,6E0,1E0,2E0,1E0,5E0,1E0,1E0],"tree_param":{"num_deleted":"0","num_feature":"16","num_nodes":"23","size_leaf_vector":"1"}},{"base_weights":[-8.9204544E1,-3.6557812E2,4.7147746E0,-1.7703077E1,9.828745E0,1.6491669E1,2.922295E0,1.9695692E1,1.5479108E0,-2.5715332E0,7.998653E0,7.419211E0,3.216463E0,-7.819987E0,1.0918458E0,3.010895E0,5.8089906E-1,-6.8481445E-1,-2.8341799E0,5.794434E-1,-1.1173502E-1,-1.4377442E-1,9.3493655E-2],"categories":[],"categories_nodes":[],"categories_segments":[],"categories_sizes":[],"default_left":[0,0,0,0,0,0,0,0,0,0,0,0,0,0,0,0,0,0,0,0,0,0,0],"id":17,"left_children":[1,-1,3,-1,5,7,9,11,-1,13,15,-1,-1,17,19,-1,-1,-1,-1,-1,21,-1,-1],"loss_changes":[2.7636035E6,0E0,8.727193E3,0E0,1.0562183E3,3.3407056E2,3.831211E2,1.4151318E2,0E0,1.4312775E2,6.703717E1,0E0,0E0,5.466629E0,5.2686405E0,0E0,0E0,0E0,0E0,0E0,6.1614907E-1,0E0,0E0],"parents":[2147483647,0,0,2,2,4,4,5,5,6,6,7,7,9,9,10,10,13,13,14,14,20,20],"right_children":[2,-1,4,-1,6,8,10,12,-1,14,16,-1,-1,18,20,-1,-1,-1,-1,-1,22,-1,-1],"split_conditions":[-1.4693416E0,-3.6557812E2,-1.4456375E0,-1.7703077E1,4.49E2,4.766E3,-4.439382E2,8.3E1,1.5479108E0,-1.358276E0,-1.084457E0,7.419211E0,3.216463E0,-1.4344693E0,-9.257646E2,3.010895E0,5.8089906E-1,-6.8481445E-1,-2.8341799E0,5.794434E-1,-1.323182E0,-1.4377442E-1,9.3493655E-2],"split_indices":[0,0,0,0,8,5,1,8,0,0,0,0,0,0,1,0,0,0,0,0,0,0,0],"split_type":[0,0,0,0,0,0,0,0,0,0,0,0,0,0,0,0,0,0,0,0,0,0,0],"sum_hessian":[2.5E1,1E0,2.4E1,1E0,2.3E1,1.1E1,1.2E1,8E0,3E0,6E0,6E0,4E0,4E0,2E0,4E0,4E0,2E0,1E0,1E0,2E0,2E0,1E0,1E0],"tree_param":{"num_deleted":"0","num_feature":"16","num_nodes":"23","size_leaf_vector":"1"}},{"base_weights":[-7.6693E1,-3.1074142E2,3.1036518E0,-1.5047608E1,7.4128613E0,-2.2875774E0,1.0086007E1,1.5538635E0,-6.6469727E0,7.435942E0,5.44943E0,7.0301515E-1,-1.22204594E-1,-5.820923E-1,-2.4090455E0,3.5496871E0,5.5112243E0,2.4671023E-1,6.288983E0,2.6184106E0,4.2833343E0,3.3387452E-1,4.5772634E0,4.0648043E-1,1.4665488E0],"categories":[],"categories_nodes":[],"categories_segments":[],"categories_sizes":[],"default_left":[0,0,0,0,0,0,0,0,0,0,0,0,0,0,0,0,0,0,0,0,0,0,0,0,0],"id":18,"left_children":[1,-1,3,-1,5,7,9,11,13,15,-1,-1,-1,-1,-1,-1,17,-1,19,-1,21,-1,23,-1,-1],"loss_changes":[1.9930962E6,0E0,6.1097847E3,0E0,6.4540906E2,1.10806656E2,2.7170325E2,7.14824E0,3.9495087E0,7.0177246E1,0E0,0E0,0E0,0E0,0E0,0E0,4.2236572E1,0E0,1.6425568E1,0E0,2.3609314E0,0E0,3.9665222E-1,0E0,0E0],"parents":[2147483647,0,0,2,2,4,4,5,5,6,6,7,7,8,8,9,9,16,16,18,18,20,20,22,22],"right_children":[2,-1,4,-1,6,8,10,12,14,16,-1,-1,-1,-1,-1,-1,18,-1,20,-1,22,-1,24,-1,-1],"split_conditions":[-1.4693416E0,-3.1074142E2,-1.4456375E0,-1.5047608E1,-1.3045362E0,2.863E3,-2.013158E-1,2.211E3,-1.4344693E0,2.03E2,5.44943E0,7.0301515E-1,-1.22204594E-1,-5.820923E-1,-2.4090455E0,3.5496871E0,6.03E2,2.4671023E-1,-1.186172E0,2.6184106E0,-1.1133238E0,3.3387452E-1,7.72E2,4.0648043E-1,1.4665488E0],"split_indices":[0,0,0,0,0,2,0,2,0,5,0,0,0,0,0,0,3,0,0,0,0,0,7,0,0],"split_type":[0,0,0,0,0,0,0,0,0,0,0,0,0,0,0,0,0,0,0,0,0,0,0,0,0],"sum_hessian":[2.5E1,1E0,2.4E1,1E0,2.3E1,5E0,1.8E1,3E0,2E0,1.5E1,3E0,2E0,1E0,1E0,1E0,3E0,1.2E1,2E0,1E1,3E0,7E0,1E0,6E0,1E0,5E0],"tree_param":{"num_deleted":"0","num_feature":"16","num_nodes":"25","size_leaf_vector":"1"}},{"base_weights":[-6.576693E1,-2.641301E2,2.0370786E0,-1.279043E1,5.674854E0,-2.003072E0,7.8007855E0,1.2328796E0,-5.649984E0,5.74401E0,4.223308E0,5.6240237E-1,-1.03875734E-1,-4.947876E-1,-2.0477052E0,2.7510078E0,4.248004E0,6.5789795E-1,4.840942E0,4.246216E-2,2.5359192E-1,2.0292687E0,3.2741804E0,2.8377688E-1,1.0414971E0],"categories":[],"categories_nodes":[],"categories_segments":[],"categories_sizes":[],"default_left":[0,0,0,0,0,0,0,0,0,0,0,0,0,0,0,0,0,0,0,0,0,0,0,0,0],"id":19,"left_children":[1,-1,3,-1,5,7,9,11,13,15,-1,-1,-1,-1,-1,-1,17,19,21,-1,-1,-1,23,-1,-1],"loss_changes":[1.4379729E6,0E0,4.3045996E3,0E0,4.073714E2,7.777313E1,1.6443127E2,4.7030253E0,2.853302E0,4.3051086E1,0E0,0E0,0E0,0E0,0E0,0E0,2.4488342E1,1.7066407E-1,1.0999359E1,0E0,0E0,0E0,3.942871E-1,0E0,0E0],"parents":[2147483647,0,0,2,2,4,4,5,5,6,6,7,7,8,8,9,9,16,16,17,17,18,18,22,22],"right_children":[2,-1,4,-1,6,8,10,12,14,16,-1,-1,-1,-1,-1,-1,18,20,22,-1,-1,-1,24,-1,-1],"split_conditions":[-1.4693416E0,-2.641301E2,-1.4456375E0,-1.279043E1,-1.3045362E0,2.863E3,-2.013158E-1,2.211E3,-1.4344693E0,2.03E2,4.223308E0,5.6240237E-1,-1.03875734E-1,-4.947876E-1,-2.0477052E0,2.7510078E0,6.03E2,-1.2597226E0,-1.186172E0,4.246216E-2,2.5359192E-1,2.0292687E0,-1.1133238E0,2.8377688E-1,1.0414971E0],"split_indices":[0,0,0,0,0,2,0,2,0,5,0,0,0,0,0,0,3,0,0,0,0,0,0,0,0],"split_type":[0,0,0,0,0,0,0,0,0,0,0,0,0,0,0,0,0,0,0,0,0,0,0,0,0],"sum_hessian":[2.5E1,1E0,2.4E1,1E0,2.3E1,5E0,1.8E1,3E0,2E0,1.5E1,3E0,2E0,1E0,1E0,1E0,3E0,1.2E1,2E0,1E1,1E0,1E0,3E0,7E0,1E0,6E0],"tree_param":{"num_deleted":"0","num_feature":"16","num_nodes":"25","size_leaf_vector":"1"}},{"base_weights":[-5.6359188E1,-2.2451076E2,1.2559768E0,-1.0871851E1,4.3282676E0,-1.7494913E0,6.0197563E0,9.776306E-1,-4.80249E0,3.0875156E0,4.194452E0,4.4991457E-1,-8.829346E-2,-4.2055666E-1,-1.740564E0,2.3058095E0,6.023499E0,2.9688003E0,7.348709E-1,2.4518147E0,7.105225E-1,9.725462E-1,2.4055482E-1,3.609009E-2,2.698883E-1],"categories":[],"categories_nodes":[],"categories_segments":[],"categories_sizes":[],"default_left":[0,0,0,0,0,0,0,0,0,0,0,0,0,0,0,0,0,0,0,0,0,0,0,0,0],"id":20,"left_children":[1,-1,3,-1,5,7,9,11,13,-1,15,-1,-1,-1,-1,17,19,21,23,-1,-1,-1,-1,-1,-1],"loss_changes":[1.0375668E6,0E0,3.0367795E3,0E0,2.572626E2,5.465046E1,1.0498688E2,3.0976288E0,2.0622864E0,0E0,3.7927216E1,0E0,0E0,0E0,0E0,7.1919746E0,3.563272E1,9.5027924E-1,2.9679322E-1,0E0,0E0,0E0,0E0,0E0,0E0],"parents":[2147483647,0,0,2,2,4,4,5,5,6,6,7,7,8,8,10,10,15,15,16,16,17,17,18,18],"right_children":[2,-1,4,-1,6,8,10,12,14,-1,16,-1,-1,-1,-1,18,20,22,24,-1,-1,-1,-1,-1,-1],"split_conditions":[-1.4693416E0,-2.2451076E2,-1.4456375E0,-1.0871851E1,-1.3045362E0,2.863E3,9.63E2,2.211E3,-1.4344693E0,3.0875156E0,2.2453E4,4.4991457E-1,-8.829346E-2,-4.2055666E-1,-1.740564E0,4.24E2,6.908E3,-3.0160734E-1,-1.2597226E0,2.4518147E0,7.105225E-1,9.725462E-1,2.4055482E-1,3.609009E-2,2.698883E-1],"split_indices":[0,0,0,0,0,2,6,2,0,0,11,0,0,0,0,8,5,0,0,0,0,0,0,0,0],"split_type":[0,0,0,0,0,0,0,0,0,0,0,0,0,0,0,0,0,0,0,0,0,0,0,0,0],"sum_hessian":[2.5E1,1E0,2.4E1,1E0,2.3E1,5E0,1.8E1,3E0,2E0,4E0,1.4E1,2E0,1E0,1E0,1E0,8E0,6E0,5E0,3E0,3E0,3E0,4E0,1E0,1E0,2E0],"tree_param":{"num_deleted":"0","num_feature":"16","num_nodes":"25","size_leaf_vector":"1"}},{"base_weights":[-4.8274975E1,-1.9083398E2,6.8308854E-1,-9.24104E0,3.2785063E0,-1.5245718E0,4.6227145E0,7.7472687E-1,-4.082113E0,3.3010986E0,2.62605E0,1.1997579E0,-7.5054936E-2,-3.574585E-1,-1.4794922E0,1.7500314E0,2.5226617E0,4.3574068E-1,1.0415039E-1,3.6739096E-1,2.8512576E0,3.0670168E-2,1.3465577E-1,1.1557938E0,1.8689828E0,2.1590883E-1,6.396387E-1],"categories":[],"categories_nodes":[],"categories_segments":[],"categories_sizes":[],"default_left":[0,0,0,0,0,0,0,0,0,0,0,0,0,0,0,0,0,0,0,0,0,0,0,0,0,0,0],"id":21,"left_children":[1,-1,3,-1,5,7,9,11,13,15,-1,17,-1,-1,-1,-1,19,-1,-1,21,23,-1,-1,-1,25,-1,-1],"loss_changes":[7.4869956E5,0E0,2.1440083E3,0E0,1.6199979E2,3.8445824E1,7.483075E1,2.042633E0,1.4907036E0,1.6824463E1,0E0,1.4212608E-1,0E0,0E0,0E0,0E0,8.867455E0,0E0,0E0,1.8912405E-2,4.603134E0,0E0,0E0,0E0,8.849602E-1,0E0,0E0],"parents":[2147483647,0,0,2,2,4,4,5,5,6,6,7,7,8,8,9,9,11,11,16,16,19,19,20,20,24,24],"right_children":[2,-1,4,-1,6,8,10,12,14,16,-1,18,-1,-1,-1,-1,20,-1,-1,22,24,-1,-1,-1,26,-1,-1],"split_conditions":[-1.4693416E0,-1.9083398E2,-1.4456375E0,-9.24104E0,-1.3045362E0,2.863E3,-2.013158E-1,2.211E3,-1.4344693E0,7.25E2,2.62605E0,-1.4416295E0,-7.5054936E-2,-3.574585E-1,-1.4794922E0,1.7500314E0,-9.239171E2,4.3574068E-1,1.0415039E-1,-1.2597226E0,-1.084457E0,3.0670168E-2,1.3465577E-1,1.1557938E0,-1.0229738E0,2.1590883E-1,6.396387E-1],"split_indices":[0,0,0,0,0,2,0,2,0,6,0,0,0,0,0,0,1,0,0,0,0,0,0,0,0,0,0],"split_type":[0,0,0,0,0,0,0,0,0,0,0,0,0,0,0,0,0,0,0,0,0,0,0,0,0,0,0],"sum_hessian":[2.5E1,1E0,2.4E1,1E0,2.3E1,5E0,1.8E1,3E0,2E0,1.5E1,3E0,2E0,1E0,1E0,1E0,2E0,1.3E1,1E0,1E0,2E0,1.1E1,1E0,1E0,4E0,7E0,2E0,5E0],"tree_param":{"num_deleted":"0","num_feature":"16","num_nodes":"27","size_leaf_vector":"1"}},{"base_weights":[-4.1288494E1,-1.6220918E2,3.1574577E-1,-7.854859E0,2.510807E0,-4.3715414E-1,4.0121098E0,-3.4698079E0,9.2500526E-1,5.3767204E0,1.4895074E0,-3.0384523E-1,-1.2575684E0,8.465576E-2,1.5341034E0,2.2389128E0,2.7419987E0,5.356192E-1,1.4995652E-1,-6.379395E-2,7.639161E-2,5.3734744E-1,1.14440925E-1,1.2098054E0,1.6773247E0,1.4268036E-1,5.576566E-1],"categories":[],"categories_nodes":[],"categories_segments":[],"categories_sizes":[],"default_left":[0,0,0,0,0,0,0,0,0,0,0,0,0,0,0,0,0,0,0,0,0,0,0,0,0,0,0],"id":22,"left_children":[1,-1,3,-1,5,7,9,11,13,15,17,-1,-1,19,21,-1,23,-1,-1,-1,-1,-1,-1,-1,25,-1,-1],"loss_changes":[5.403863E5,0E0,1.5198917E3,0E0,1.0797267E2,4.038821E1,4.7069275E1,1.0768547E0,3.453117E0,3.4505096E1,1.1573582E0,0E0,0E0,2.5629324E-1,5.018873E-1,0E0,1.480835E0,0E0,0E0,0E0,0E0,0E0,0E0,0E0,2.0667362E-1,0E0,0E0],"parents":[2147483647,0,0,2,2,4,4,5,5,6,6,7,7,8,8,9,9,10,10,13,13,14,14,16,16,24,24],"right_children":[2,-1,4,-1,6,8,10,12,14,16,18,-1,-1,20,22,-1,24,-1,-1,-1,-1,-1,-1,-1,26,-1,-1],"split_conditions":[-1.4693416E0,-1.6220918E2,-1.4456375E0,-7.854859E0,-4.4370374E2,-1.358276E0,1.35E2,-1.4344693E0,1.401E4,8.3E1,-1.2187033E2,-3.0384523E-1,-1.2575684E0,-1.323182E0,3.29E3,2.2389128E0,-3.4059305E2,5.356192E-1,1.4995652E-1,-6.379395E-2,7.639161E-2,5.3734744E-1,1.14440925E-1,1.2098054E0,-1.9743816E2,1.4268036E-1,5.576566E-1],"split_indices":[0,0,0,0,1,0,4,0,9,8,1,0,0,0,2,0,1,0,0,0,0,0,0,0,1,0,0],"split_type":[0,0,0,0,0,0,0,0,0,0,0,0,0,0,0,0,0,0,0,0,0,0,0,0,0,0,0],"sum_hessian":[2.5E1,1E0,2.4E1,1E0,2.3E1,8E0,1.5E1,2E0,6E0,9E0,6E0,1E0,1E0,3E0,3E0,4E0,5E0,4E0,2E0,1E0,2E0,2E0,1E0,1E0,4E0,1E0,3E0],"tree_param":{"num_deleted":"0","num_feature":"16","num_nodes":"27","size_leaf_vector":"1"}},{"base_weights":[-3.529135E1,-1.3787755E2,6.4339526E-2,-6.6766114E0,1.9216346E0,2.5866044E0,-2.0498657E0,4.1562443E0,1.5049101E0,-2.9493E0,9.726563E-2,5.1569133E0,2.3084716E-1,7.435379E-1,8.1800175E-1,-2.5825197E-1,-1.0689331E0,3.8728812E-1,1.7015737E0,6.2408447E-2,3.079605E-1,-5.4217532E-2,2.0369466E-1,7.705078E-2,1.4611817E-2],"categories":[],"categories_nodes":[],"categories_segments":[],"categories_sizes":[],"default_left":[0,0,0,0,0,0,0,0,0,0,0,0,0,0,0,0,0,0,0,0,0,0,0,0,0],"id":23,"left_children":[1,-1,3,-1,5,7,9,11,13,15,-1,17,-1,19,-1,-1,-1,-1,-1,21,-1,-1,23,-1,-1],"loss_changes":[3.9006688E5,0E0,1.0791239E3,0E0,6.868447E1,2.9400497E1,9.497551E0,2.3143982E1,1.0995642E1,7.7848625E-1,0E0,4.6235504E0,0E0,1.863512E0,0E0,0E0,0E0,0E0,0E0,1.7421842E-1,0E0,0E0,1.2199409E-2,0E0,0E0],"parents":[2147483647,0,0,2,2,4,4,5,5,6,6,7,7,8,8,9,9,11,11,13,13,19,19,22,22],"right_children":[2,-1,4,-1,6,8,10,12,14,16,-1,18,-1,20,-1,-1,-1,-1,-1,22,-1,-1,24,-1,-1],"split_conditions":[-1.4693416E0,-1.3787755E2,-1.4456375E0,-6.6766114E0,2.67E3,2.386E3,-1.358276E0,4.196E3,1.5807E4,-1.4344693E0,9.726563E-2,5E0,2.3084716E-1,-4.439382E2,8.1800175E-1,-2.5825197E-1,-1.0689331E0,3.8728812E-1,1.7015737E0,-1.323182E0,3.079605E-1,-5.4217532E-2,-1.3045362E0,7.705078E-2,1.4611817E-2],"split_indices":[0,0,0,0,8,9,0,3,9,0,0,4,0,1,0,0,0,0,0,0,0,0,0,0,0],"split_type":[0,0,0,0,0,0,0,0,0,0,0,0,0,0,0,0,0,0,0,0,0,0,0,0,0],"sum_hessian":[2.5E1,1E0,2.4E1,1E0,2.3E1,2E1,3E0,7E0,1.3E1,2E0,1E0,5E0,2E0,9E0,4E0,1E0,1E0,1E0,4E0,3E0,6E0,1E0,2E0,1E0,1E0],"tree_param":{"num_deleted":"0","num_feature":"16","num_nodes":"25","size_leaf_vector":"1"}},{"base_weights":[-3.0177002E1,-1.1719571E2,-1.3189532E-1,-5.675098E0,1.439025E0,-4.5496285E-1,2.4144542E0,-2.5069172E0,4.8944092E-1,3.2850704E0,8.2579476E-1,-2.1950684E-1,-9.08606E-1,1.6008504E-1,3.6983645E-1,3.7857594E0,2.5646287E-1,3.0718327E-1,6.608429E-2,-4.608765E-2,2.5355226E-1,8.984044E-1,1.3795431E0,1.2414551E-2,8.887482E-2,7.508698E-2,3.2919502E-1],"categories":[],"categories_nodes":[],"categories_segments":[],"categories_sizes":[],"default_left":[0,0,0,0,0,0,0,0,0,0,0,0,0,0,0,0,0,0,0,0,0,0,0,0,0,0,0],"id":24,"left_children":[1,-1,3,-1,5,7,9,11,13,15,17,-1,-1,19,-1,21,-1,-1,-1,-1,23,25,-1,-1,-1,-1,-1],"loss_changes":[2.81542E5,0E0,7.649693E2,0E0,4.543731E1,1.8667849E1,1.9417007E1,5.6272125E-1,1.5164293E0,8.931366E0,6.143198E-1,0E0,0E0,2.1488196E-1,0E0,1.4641541E1,0E0,0E0,0E0,0E0,3.3036023E-2,1.1210656E-1,0E0,0E0,0E0,0E0,0E0],"parents":[2147483647,0,0,2,2,4,4,5,5,6,6,7,7,8,8,9,9,10,10,13,13,15,15,20,20,21,21],"right_children":[2,-1,4,-1,6,8,10,12,14,16,18,-1,-1,20,-1,22,-1,-1,-1,-1,24,26,-1,-1,-1,-1,-1],"split_conditions":[-1.4693416E0,-1.1719571E2,-1.4456375E0,-5.675098E0,-4.4370374E2,-1.358276E0,1.35E2,-1.4344693E0,-1.1133238E0,1.985E3,-1.2187033E2,-2.1950684E-1,-9.08606E-1,-1.323182E0,3.6983645E-1,5E0,2.5646287E-1,3.0718327E-1,6.608429E-2,-4.608765E-2,5.65E2,-1.0229738E0,1.3795431E0,1.2414551E-2,8.887482E-2,7.508698E-2,3.2919502E-1],"split_indices":[0,0,0,0,1,0,4,0,0,2,1,0,0,0,0,4,0,0,0,0,3,0,0,0,0,0,0],"split_type":[0,0,0,0,0,0,0,0,0,0,0,0,0,0,0,0,0,0,0,0,0,0,0,0,0,0,0],"sum_hessian":[2.5E1,1E0,2.4E1,1E0,2.3E1,8E0,1.5E1,2E0,6E0,9E0,6E0,1E0,1E0,5E0,1E0,7E0,2E0,4E0,2E0,1E0,4E0,2E0,5E0,1E0,3E0,1E0,1E0],"tree_param":{"num_deleted":"0","num_feature":"16","num_nodes":"27","size_leaf_vector":"1"}}]},"name":"gbtree"},"learner_model_param":{"base_score":"-2.6869749E3","boost_from_average":"1","num_class":"0","num_feature":"16","num_target":"1"},"objective":{"name":"reg:squarederror","reg_loss_param":{"scale_pos_weight":"1"}}},"version":[2,0,3]}